SNNS network definition file V1.4-3D
generated at Tue Jan  4 23:30:15 2022

network name : rbf_irisSnnsR
source files :
no. of units : 47
no. of connections : 280
no. of unit types : 0
no. of site types : 0


learning function : RadialBasisLearning
update function   : Topological_Order


unit default section :

act      | bias     | st | subnet | layer | act func         | out func
---------|----------|----|--------|-------|------------------|-------------
 0.00000 |  0.00000 | i  |      0 |     1 | Act_RBF_Gaussian | Out_Identity 
---------|----------|----|--------|-------|------------------|-------------


unit definition section :

no. | typeName | unitName    | act      | bias     | st | position | act func     | out func | sites
----|----------|-------------|----------|----------|----|----------|--------------|----------|-------
  1 |          | Input_1     |  0.06843 |  0.00000 | i  |  1, 0, 0 | Act_Identity |          | 
  2 |          | Input_2     | -0.13154 |  0.00000 | i  |  2, 0, 0 | Act_Identity |          | 
  3 |          | Input_3     |  0.76021 |  0.00000 | i  |  3, 0, 0 | Act_Identity |          | 
  4 |          | Input_4     |  0.78803 |  0.00000 | i  |  4, 0, 0 | Act_Identity |          | 
  5 |          | Hidden_2_1  |  0.99984 |  0.20000 | h  |  1, 2, 0 |||
  6 |          | Hidden_2_2  |  0.75790 |  0.20000 | h  |  2, 2, 0 |||
  7 |          | Hidden_2_3  |  0.67527 |  0.20000 | h  |  3, 2, 0 |||
  8 |          | Hidden_2_4  |  0.90968 |  0.20000 | h  |  4, 2, 0 |||
  9 |          | Hidden_2_5  |  0.88653 |  0.20000 | h  |  5, 2, 0 |||
 10 |          | Hidden_2_6  |  0.58190 |  0.20000 | h  |  6, 2, 0 |||
 11 |          | Hidden_2_7  |  0.92950 |  0.20000 | h  |  7, 2, 0 |||
 12 |          | Hidden_2_8  |  0.30451 |  0.20000 | h  |  8, 2, 0 |||
 13 |          | Hidden_2_9  |  0.24548 |  0.20000 | h  |  9, 2, 0 |||
 14 |          | Hidden_2_10 |  0.83974 |  0.20000 | h  | 10, 2, 0 |||
 15 |          | Hidden_2_11 |  0.84899 |  0.20000 | h  | 11, 2, 0 |||
 16 |          | Hidden_2_12 |  0.55839 |  0.20000 | h  | 12, 2, 0 |||
 17 |          | Hidden_2_13 |  0.92769 |  0.20000 | h  | 13, 2, 0 |||
 18 |          | Hidden_2_14 |  0.81708 |  0.20000 | h  | 14, 2, 0 |||
 19 |          | Hidden_2_15 |  0.82945 |  0.20000 | h  | 15, 2, 0 |||
 20 |          | Hidden_2_16 |  0.92049 |  0.20000 | h  | 16, 2, 0 |||
 21 |          | Hidden_2_17 |  0.51168 |  0.20000 | h  | 17, 2, 0 |||
 22 |          | Hidden_2_18 |  0.87945 |  0.20000 | h  | 18, 2, 0 |||
 23 |          | Hidden_2_19 |  0.49660 |  0.20000 | h  | 19, 2, 0 |||
 24 |          | Hidden_2_20 |  0.71391 |  0.20000 | h  | 20, 2, 0 |||
 25 |          | Hidden_2_21 |  0.70983 |  0.20000 | h  | 21, 2, 0 |||
 26 |          | Hidden_2_22 |  0.46708 |  0.20000 | h  | 22, 2, 0 |||
 27 |          | Hidden_2_23 |  0.76723 |  0.20000 | h  | 23, 2, 0 |||
 28 |          | Hidden_2_24 |  0.92026 |  0.20000 | h  | 24, 2, 0 |||
 29 |          | Hidden_2_25 |  0.34602 |  0.20000 | h  | 25, 2, 0 |||
 30 |          | Hidden_2_26 |  0.49734 |  0.20000 | h  | 26, 2, 0 |||
 31 |          | Hidden_2_27 |  0.12165 |  0.20000 | h  | 27, 2, 0 |||
 32 |          | Hidden_2_28 |  0.13574 |  0.20000 | h  | 28, 2, 0 |||
 33 |          | Hidden_2_29 |  0.07986 |  0.20000 | h  | 29, 2, 0 |||
 34 |          | Hidden_2_30 |  0.08647 |  0.20000 | h  | 30, 2, 0 |||
 35 |          | Hidden_2_31 |  0.13467 |  0.20000 | h  | 31, 2, 0 |||
 36 |          | Hidden_2_32 |  0.12856 |  0.20000 | h  | 32, 2, 0 |||
 37 |          | Hidden_2_33 |  0.15960 |  0.20000 | h  | 33, 2, 0 |||
 38 |          | Hidden_2_34 |  0.06000 |  0.20000 | h  | 34, 2, 0 |||
 39 |          | Hidden_2_35 |  0.08675 |  0.20000 | h  | 35, 2, 0 |||
 40 |          | Hidden_2_36 |  0.02709 |  0.20000 | h  | 36, 2, 0 |||
 41 |          | Hidden_2_37 |  0.11429 |  0.20000 | h  | 37, 2, 0 |||
 42 |          | Hidden_2_38 |  0.12214 |  0.20000 | h  | 38, 2, 0 |||
 43 |          | Hidden_2_39 |  0.11042 |  0.20000 | h  | 39, 2, 0 |||
 44 |          | Hidden_2_40 |  0.10796 |  0.20000 | h  | 40, 2, 0 |||
 45 |          | Output_1    |  0.00000 | -0.47304 | o  |  1, 4, 0 | Act_Logistic |          | 
 46 |          | Output_2    |  0.34120 | -8.45713 | o  |  2, 4, 0 | Act_Logistic |          | 
 47 |          | Output_3    |  0.92689 |  5.24258 | o  |  3, 4, 0 | Act_Logistic |          | 
----|----------|-------------|----------|----------|----|----------|--------------|----------|-------


connection definition section :

target | site | source:weight
-------|------|---------------------------------------------------------------------------------------------------------------------
     5 |      |  4: 0.78530,  3: 0.78749,  2:-0.13693,  1: 0.06865
     6 |      |  4: 1.44283,  3: 0.80620,  2:-0.13282,  1: 1.04574
     7 |      |  4: 1.44490,  3: 0.75400,  2: 0.09832,  1: 1.28450
     8 |      |  4: 0.78149,  3: 0.99151,  2: 0.10114,  1: 0.67310
     9 |      |  4: 0.39591,  3: 0.75314,  2:-0.59469,  1: 0.55207
    10 |      |  4: 0.51832,  3: 1.17244,  2:-0.13503,  1: 1.63832
    11 |      |  4: 0.80018,  3: 0.58774,  2:-0.57990,  1: 0.43536
    12 |      |  4: 1.05172,  3: 1.62820,  2:-0.59290,  1: 2.28415
    13 |      |  4: 1.48706,  3: 1.75548,  2:-1.02791,  1: 2.24560
    14 |      |  4: 1.59390,  3: 0.72266,  2:-0.58743,  1:-0.05258
    15 |      |  4: 1.05658,  3: 0.75887,  2: 0.32800,  1: 0.80005
    16 |      |  4: 0.65612,  3: 0.41152,  2:-1.27455,  1:-1.14318
    17 |      |  4: 0.77945,  3: 1.05323,  2:-0.36225,  1: 0.55436
    18 |      |  4: 0.13843,  3: 0.19588,  2:-0.59156,  1:-0.17242
    19 |      |  4: 0.00088,  3: 0.25077,  2:-0.12999,  1:-0.16785
    20 |      |  4: 0.26084,  3: 0.48300,  2:-0.13053,  1: 0.31227
    21 |      |  4: 0.13152,  3: 0.35946,  2:-1.72322,  1: 0.54302
    22 |      |  4: 0.39957,  3: 0.42321,  2:-0.13247,  1:-0.54624
    23 |      |  4:-0.12794,  3: 0.02385,  2:-1.50445,  1:-0.41499
    24 |      |  4: 0.25888,  3: 0.59001,  2:-0.58999,  1: 1.14819
    25 |      |  4: 0.39188,  3: 0.67799,  2:-1.28482,  1: 0.53738
    26 |      |  4: 0.39454,  3: 0.42176,  2:-1.97665,  1: 0.43236
    27 |      |  4: 0.13276,  3:-0.08665,  2:-0.36626,  1:-0.28256
    28 |      |  4: 0.39589,  3: 0.24861,  2:-0.12973,  1: 0.06681
    29 |      |  4:-0.25839,  3:-0.25712,  2:-1.48336,  1:-1.09301
    30 |      |  4: 0.13322,  3: 0.13742,  2:-1.69376,  1:-0.41659
    31 |      |  4:-1.30792,  3:-1.35447,  2: 0.55097,  1:-1.02810
    32 |      |  4:-1.16816,  3:-1.33420,  2:-0.13068,  1:-1.26268
    33 |      |  4:-1.31172,  3:-1.38792,  2: 0.32829,  1:-1.77614
    34 |      |  4:-1.32807,  3:-1.40952,  2:-0.13272,  1:-1.67916
    35 |      |  4:-1.29019,  3:-1.28114,  2: 0.09899,  1:-1.15035
    36 |      |  4:-1.35964,  3:-1.21937,  2: 0.09421,  1:-1.22566
    37 |      |  4:-1.03030,  3:-1.19643,  2: 0.77862,  1:-1.03266
    38 |      |  4:-1.30786,  3:-1.54932,  2: 1.24917,  1:-1.49177
    39 |      |  4:-1.18423,  3:-1.26495,  2: 1.69311,  1:-0.88200
    40 |      |  4:-1.05122,  3:-1.27767,  2: 3.10103,  1:-0.17132
    41 |      |  4:-1.32145,  3:-1.20678,  2: 0.78962,  1:-1.22673
    42 |      |  4:-1.33300,  3:-1.24471,  2: 0.77187,  1:-1.01708
    43 |      |  4:-1.32071,  3:-1.24772,  2: 0.09701,  1:-1.50843
    44 |      |  4:-1.32552,  3:-1.33538,  2: 1.01405,  1:-0.91086
    45 |      | 44:-21043.43164, 43:5605.14453, 42:26982.39844, 41:-8887.87793, 40:-240.12393, 39:3829.15503, 38:1312.63159, 37:-3416.14331, 36:-19437.53906,
                35:4661.94922, 34:2193.50708, 33:-2441.61182, 32:1742.02539, 31:9056.37305, 30:-93.37595, 29:251.98907, 28:110.45861, 27:-108.70560,
                26:-2.07418, 25:31.72009, 24: 7.79447, 23: 9.19267, 22:-14.75864, 21:-17.56100, 20:22.16845, 19:-42.65698, 18:83.29961,
                17:35.82779, 16: 5.98311, 15:-20.42981, 14:-16.15787, 13:-5.31280, 12:-0.66270, 11:-57.02796, 10: 5.59170,  9:-79.32249,
                 8:-19.82957,  7:-31.79699,  6:57.38136,  5:15.87686
    46 |      | 44:3131.74414, 43:-1630.80945, 42:-5240.24512, 41:3481.59766, 40:115.94647, 39:-790.09711, 38:-208.25850, 37:283.08292, 36:-944.34747,
                35:4278.84766, 34:1038.86951, 33:-342.83130, 32:-1506.69080, 31:-1672.24133, 30:495.63739, 29:21.32824, 28:-704.97205, 27:-167.11452,
                26:-131.10109, 25:-144.14191, 24:389.34293, 23:-315.75452, 22:803.69623, 21:31.90985, 20:282.23120, 19:128.70337, 18:81.10691,
                17:304.04593, 16:-219.33330, 15:183.12061, 14:225.37003, 13:-95.75032, 12:242.36432, 11:603.80652, 10:-488.07263,  9:-422.94995,
                 8:582.13177,  7:122.30305,  6:-443.99527,  5:-1307.90015
    47 |      | 44:6295.26074, 43:-416.11218, 42:-8503.81348, 41:7471.81055, 40:231.15498, 39:-1834.15967, 38:-118.06361, 37:451.43289, 36:-8818.04980,
                35:17395.79297, 34:2962.46021, 33:-2248.92163, 32:-5880.70752, 31:-7040.10059, 30:-489.13107, 29:92.49714, 28:634.25122, 27:239.99310,
                26:100.35843, 25:132.80727, 24:-403.17789, 23:261.83795, 22:-799.99719, 21: 4.25905, 20:-323.62595, 19:-41.59097, 18:-204.46359,
                17:-343.64090, 16:212.13049, 15:-164.31625, 14:-212.32253, 13:102.79449, 12:-243.19420, 11:-546.10535, 10:486.29514,  9:499.86682,
                 8:-566.98785,  7:-91.85712,  6:387.86551,  5:1298.66992
-------|------|---------------------------------------------------------------------------------------------------------------------
