SNNS network definition file V1.4-3D
generated at Tue Jan  4 23:30:16 2022

network name : rbf_sinSnnsR_untrained.net
source files :
no. of units : 42
no. of connections : 80
no. of unit types : 0
no. of site types : 0


learning function : RadialBasisLearning
update function   : Topological_Order


unit default section :

act      | bias     | st | subnet | layer | act func         | out func
---------|----------|----|--------|-------|------------------|-------------
 0.00000 |  0.00000 | i  |      0 |     1 | Act_RBF_Gaussian | Out_Identity 
---------|----------|----|--------|-------|------------------|-------------


unit definition section :

no. | typeName | unitName    | act      | bias     | st | position | act func             | out func | sites
----|----------|-------------|----------|----------|----|----------|----------------------|----------|-------
  1 |          | Input_1     | 10.00000 |  0.00000 | i  |  1, 0, 0 | Act_Identity         |          | 
  2 |          | Hidden_2_1  |  1.00000 |  0.01000 | h  |  1, 2, 0 |||
  3 |          | Hidden_2_2  |  0.99924 |  0.01000 | h  |  2, 2, 0 |||
  4 |          | Hidden_2_3  |  0.99669 |  0.01000 | h  |  3, 2, 0 |||
  5 |          | Hidden_2_4  |  0.99390 |  0.01000 | h  |  4, 2, 0 |||
  6 |          | Hidden_2_5  |  0.98841 |  0.01000 | h  |  5, 2, 0 |||
  7 |          | Hidden_2_6  |  0.98331 |  0.01000 | h  |  6, 2, 0 |||
  8 |          | Hidden_2_7  |  0.97388 |  0.01000 | h  |  7, 2, 0 |||
  9 |          | Hidden_2_8  |  0.96654 |  0.01000 | h  |  8, 2, 0 |||
 10 |          | Hidden_2_9  |  0.95444 |  0.01000 | h  |  9, 2, 0 |||
 11 |          | Hidden_2_10 |  0.94385 |  0.01000 | h  | 10, 2, 0 |||
 12 |          | Hidden_2_11 |  0.93728 |  0.01000 | h  | 11, 2, 0 |||
 13 |          | Hidden_2_12 |  0.92039 |  0.01000 | h  | 12, 2, 0 |||
 14 |          | Hidden_2_13 |  0.90763 |  0.01000 | h  | 13, 2, 0 |||
 15 |          | Hidden_2_14 |  0.88912 |  0.01000 | h  | 14, 2, 0 |||
 16 |          | Hidden_2_15 |  0.87703 |  0.01000 | h  | 15, 2, 0 |||
 17 |          | Hidden_2_16 |  0.85837 |  0.01000 | h  | 16, 2, 0 |||
 18 |          | Hidden_2_17 |  0.83855 |  0.01000 | h  | 17, 2, 0 |||
 19 |          | Hidden_2_18 |  0.82331 |  0.01000 | h  | 18, 2, 0 |||
 20 |          | Hidden_2_19 |  0.80160 |  0.01000 | h  | 19, 2, 0 |||
 21 |          | Hidden_2_20 |  0.78518 |  0.01000 | h  | 20, 2, 0 |||
 22 |          | Hidden_2_21 |  0.76259 |  0.01000 | h  | 21, 2, 0 |||
 23 |          | Hidden_2_22 |  0.74625 |  0.01000 | h  | 22, 2, 0 |||
 24 |          | Hidden_2_23 |  0.72286 |  0.01000 | h  | 23, 2, 0 |||
 25 |          | Hidden_2_24 |  0.70533 |  0.01000 | h  | 24, 2, 0 |||
 26 |          | Hidden_2_25 |  0.68129 |  0.01000 | h  | 25, 2, 0 |||
 27 |          | Hidden_2_26 |  0.65534 |  0.01000 | h  | 26, 2, 0 |||
 28 |          | Hidden_2_27 |  0.63847 |  0.01000 | h  | 27, 2, 0 |||
 29 |          | Hidden_2_28 |  0.61127 |  0.01000 | h  | 28, 2, 0 |||
 30 |          | Hidden_2_29 |  0.59568 |  0.01000 | h  | 29, 2, 0 |||
 31 |          | Hidden_2_30 |  0.56923 |  0.01000 | h  | 30, 2, 0 |||
 32 |          | Hidden_2_31 |  0.55303 |  0.01000 | h  | 31, 2, 0 |||
 33 |          | Hidden_2_32 |  0.52725 |  0.01000 | h  | 32, 2, 0 |||
 34 |          | Hidden_2_33 |  0.50161 |  0.01000 | h  | 33, 2, 0 |||
 35 |          | Hidden_2_34 |  0.48487 |  0.01000 | h  | 34, 2, 0 |||
 36 |          | Hidden_2_35 |  0.46131 |  0.01000 | h  | 35, 2, 0 |||
 37 |          | Hidden_2_36 |  0.44493 |  0.01000 | h  | 36, 2, 0 |||
 38 |          | Hidden_2_37 |  0.42099 |  0.01000 | h  | 37, 2, 0 |||
 39 |          | Hidden_2_38 |  0.40537 |  0.01000 | h  | 38, 2, 0 |||
 40 |          | Hidden_2_39 |  0.38276 |  0.01000 | h  | 39, 2, 0 |||
 41 |          | Hidden_2_40 |  0.36788 |  0.01000 | h  | 40, 2, 0 |||
 42 |          | Output_1    |  0.00000 | -101.52234 | o  |  1, 4, 0 | Act_IdentityPlusBias |          | 
----|----------|-------------|----------|----------|----|----------|----------------------|----------|-------


connection definition section :

target | site | source:weight
-------|------|---------------------------------------------------------------------------------------------------------------------
     2 |      |  1:10.01791
     3 |      |  1: 9.72385
     4 |      |  1: 9.42441
     5 |      |  1: 9.21802
     6 |      |  1: 8.92007
     7 |      |  1: 8.70278
     8 |      |  1: 8.37327
     9 |      |  1: 8.15534
    10 |      |  1: 7.84062
    11 |      |  1: 7.59617
    12 |      |  1: 7.45485
    13 |      |  1: 7.11983
    14 |      |  1: 6.88675
    15 |      |  1: 6.57190
    16 |      |  1: 6.37758
    17 |      |  1: 6.09210
    18 |      |  1: 5.80386
    19 |      |  1: 5.59067
    20 |      |  1: 5.29742
    21 |      |  1: 5.08219
    22 |      |  1: 4.79393
    23 |      |  1: 4.58982
    24 |      |  1: 4.30319
    25 |      |  1: 4.09160
    26 |      |  1: 3.80508
    27 |      |  1: 3.49921
    28 |      |  1: 3.30161
    29 |      |  1: 2.98417
    30 |      |  1: 2.80245
    31 |      |  1: 2.49359
    32 |      |  1: 2.30365
    33 |      |  1: 1.99947
    34 |      |  1: 1.69381
    35 |      |  1: 1.49193
    36 |      |  1: 1.20402
    37 |      |  1: 1.00092
    38 |      |  1: 0.69874
    39 |      |  1: 0.49755
    40 |      |  1: 0.20029
    41 |      |  1: 0.00000
    42 |      | 41:165.27730, 40: 4.17556, 39:204.90744, 38:-466.31842, 37:228.92628, 36:24.03777, 35:-55.00411, 34:89.75282, 33:120.64478,
                32:144.10829, 31:-57.60236, 30:-136.88187, 29:-226.19101, 28:-167.12422, 27:46.23131, 26:129.64818, 25:49.98348, 24:28.27982,
                23:-53.04686, 22: 9.62535, 21:-31.50069, 20:-101.65664, 19:47.81501, 18:48.83570, 17:-165.02295, 16:66.60857, 15:-161.97900,
                14:113.20203, 13:222.73192, 12:131.88963, 11:52.32903, 10:22.08447,  9:-213.69937,  8:-127.59659,  7:-4.16012,  6:-119.93890,
                 5:141.01552,  4:65.30503,  3:-26.96253,  2:120.67274
-------|------|---------------------------------------------------------------------------------------------------------------------
