SNNS network definition file V1.4-3D
generated at Tue Jan  4 23:30:16 2022

network name : rbf_sinSnnsR
source files :
no. of units : 42
no. of connections : 80
no. of unit types : 0
no. of site types : 0


learning function : RadialBasisLearning
update function   : Topological_Order


unit default section :

act      | bias     | st | subnet | layer | act func         | out func
---------|----------|----|--------|-------|------------------|-------------
 0.00000 |  0.00000 | i  |      0 |     1 | Act_RBF_Gaussian | Out_Identity 
---------|----------|----|--------|-------|------------------|-------------


unit definition section :

no. | typeName | unitName    | act      | bias     | st | position | act func             | out func | sites
----|----------|-------------|----------|----------|----|----------|----------------------|----------|-------
  1 |          | Input_1     | 10.00000 |  0.00000 | i  |  1, 0, 0 | Act_Identity         |          | 
  2 |          | Hidden_2_1  |  1.00000 |  0.01000 | h  |  1, 2, 0 |||
  3 |          | Hidden_2_2  |  0.99925 |  0.01000 | h  |  2, 2, 0 |||
  4 |          | Hidden_2_3  |  0.99663 |  0.01000 | h  |  3, 2, 0 |||
  5 |          | Hidden_2_4  |  0.99373 |  0.01000 | h  |  4, 2, 0 |||
  6 |          | Hidden_2_5  |  0.98860 |  0.01000 | h  |  5, 2, 0 |||
  7 |          | Hidden_2_6  |  0.98332 |  0.01000 | h  |  6, 2, 0 |||
  8 |          | Hidden_2_7  |  0.97419 |  0.01000 | h  |  7, 2, 0 |||
  9 |          | Hidden_2_8  |  0.96711 |  0.01000 | h  |  8, 2, 0 |||
 10 |          | Hidden_2_9  |  0.95438 |  0.01000 | h  |  9, 2, 0 |||
 11 |          | Hidden_2_10 |  0.94369 |  0.01000 | h  | 10, 2, 0 |||
 12 |          | Hidden_2_11 |  0.93684 |  0.01000 | h  | 11, 2, 0 |||
 13 |          | Hidden_2_12 |  0.91960 |  0.01000 | h  | 12, 2, 0 |||
 14 |          | Hidden_2_13 |  0.90721 |  0.01000 | h  | 13, 2, 0 |||
 15 |          | Hidden_2_14 |  0.88973 |  0.01000 | h  | 14, 2, 0 |||
 16 |          | Hidden_2_15 |  0.87677 |  0.01000 | h  | 15, 2, 0 |||
 17 |          | Hidden_2_16 |  0.85899 |  0.01000 | h  | 16, 2, 0 |||
 18 |          | Hidden_2_17 |  0.83837 |  0.01000 | h  | 17, 2, 0 |||
 19 |          | Hidden_2_18 |  0.82314 |  0.01000 | h  | 18, 2, 0 |||
 20 |          | Hidden_2_19 |  0.80195 |  0.01000 | h  | 19, 2, 0 |||
 21 |          | Hidden_2_20 |  0.78528 |  0.01000 | h  | 20, 2, 0 |||
 22 |          | Hidden_2_21 |  0.76257 |  0.01000 | h  | 21, 2, 0 |||
 23 |          | Hidden_2_22 |  0.74640 |  0.01000 | h  | 22, 2, 0 |||
 24 |          | Hidden_2_23 |  0.72279 |  0.01000 | h  | 23, 2, 0 |||
 25 |          | Hidden_2_24 |  0.70521 |  0.01000 | h  | 24, 2, 0 |||
 26 |          | Hidden_2_25 |  0.68104 |  0.01000 | h  | 25, 2, 0 |||
 27 |          | Hidden_2_26 |  0.65527 |  0.01000 | h  | 26, 2, 0 |||
 28 |          | Hidden_2_27 |  0.63866 |  0.01000 | h  | 27, 2, 0 |||
 29 |          | Hidden_2_28 |  0.61142 |  0.01000 | h  | 28, 2, 0 |||
 30 |          | Hidden_2_29 |  0.59574 |  0.01000 | h  | 29, 2, 0 |||
 31 |          | Hidden_2_30 |  0.56923 |  0.01000 | h  | 30, 2, 0 |||
 32 |          | Hidden_2_31 |  0.55309 |  0.01000 | h  | 31, 2, 0 |||
 33 |          | Hidden_2_32 |  0.52735 |  0.01000 | h  | 32, 2, 0 |||
 34 |          | Hidden_2_33 |  0.50173 |  0.01000 | h  | 33, 2, 0 |||
 35 |          | Hidden_2_34 |  0.48479 |  0.01000 | h  | 34, 2, 0 |||
 36 |          | Hidden_2_35 |  0.46135 |  0.01000 | h  | 35, 2, 0 |||
 37 |          | Hidden_2_36 |  0.44544 |  0.01000 | h  | 36, 2, 0 |||
 38 |          | Hidden_2_37 |  0.41979 |  0.01000 | h  | 37, 2, 0 |||
 39 |          | Hidden_2_38 |  0.40593 |  0.01000 | h  | 38, 2, 0 |||
 40 |          | Hidden_2_39 |  0.38277 |  0.01000 | h  | 39, 2, 0 |||
 41 |          | Hidden_2_40 |  0.36841 |  0.01000 | h  | 40, 2, 0 |||
 42 |          | Output_1    | -0.75686 | -101.52234 | o  |  1, 4, 0 | Act_IdentityPlusBias |          | 
----|----------|-------------|----------|----------|----|----------|----------------------|----------|-------


connection definition section :

target | site | source:weight
-------|------|---------------------------------------------------------------------------------------------------------------------
     2 |      |  1:10.00827
     3 |      |  1: 9.72605
     4 |      |  1: 9.41924
     5 |      |  1: 9.20688
     6 |      |  1: 8.92943
     7 |      |  1: 8.70300
     8 |      |  1: 8.38294
     9 |      |  1: 8.17129
    10 |      |  1: 7.83902
    11 |      |  1: 7.59246
    12 |      |  1: 7.44564
    13 |      |  1: 7.10492
    14 |      |  1: 6.87942
    15 |      |  1: 6.58188
    16 |      |  1: 6.37362
    17 |      |  1: 6.10138
    18 |      |  1: 5.80128
    19 |      |  1: 5.58828
    20 |      |  1: 5.30207
    21 |      |  1: 5.08352
    22 |      |  1: 4.79360
    23 |      |  1: 4.59170
    24 |      |  1: 4.30231
    25 |      |  1: 4.09024
    26 |      |  1: 3.80219
    27 |      |  1: 3.49843
    28 |      |  1: 3.30388
    29 |      |  1: 2.98597
    30 |      |  1: 2.80308
    31 |      |  1: 2.49354
    32 |      |  1: 2.30426
    33 |      |  1: 2.00066
    34 |      |  1: 1.69520
    35 |      |  1: 1.49089
    36 |      |  1: 1.20460
    37 |      |  1: 1.00721
    38 |      |  1: 0.68340
    39 |      |  1: 0.50492
    40 |      |  1: 0.20047
    41 |      |  1: 0.00727
    42 |      | 41:165.27730, 40: 4.17753, 39:204.90744, 38:-466.31842, 37:228.92628, 36:24.03971, 35:-55.00247, 34:89.75407, 33:120.64604,
                32:144.10829, 31:-57.60069, 30:-136.88187, 29:-226.19101, 28:-167.12422, 27:46.23296, 26:129.64818, 25:49.98510, 24:28.28168,
                23:-53.04527, 22: 9.62743, 21:-31.49887, 20:-101.65546, 19:47.81652, 18:48.83720, 17:-165.02295, 16:66.60963, 15:-161.97900,
                14:113.20304, 13:222.73192, 12:131.88963, 11:52.33026, 10:22.08594,  9:-213.69937,  8:-127.59579,  7:-4.15861,  6:-119.93820,
                 5:141.01552,  4:65.30564,  3:-26.96140,  2:120.67323
-------|------|---------------------------------------------------------------------------------------------------------------------
